-2.651607626115541627e-02 -4.931084702679212894e-02 -3.578723860591701000e-02 2.809247161407222790e-02 3.425557433510094674e-01 -1.309112989560741978e-02 4.840885015902750971e-02 1.868514952104056645e-02 1.299401914264721181e-01 1.275696416989960738e-02 2.986829457852597028e-02 1.572415330592876956e-02 3.971779300271647273e-01 -2.595935077312656186e-02 -1.565581890472886040e-01 3.821610335155155996e-02 2.387747794586026207e-01 -3.997338829043417530e-02 1.534959631229385578e-02 1.298510632096687954e-02 1.783234507934560453e-01 -4.380180794866097432e-03 9.638006336023841047e-02 5.764175831804842914e-02 3.574696850513118251e-01 -5.436364064470237262e-03 5.653768585093588150e-02 2.991971293168659354e-02 3.280805100319601486e-01 2.431045386134155981e-02 4.436208107479915064e-02 5.080010862837132379e-02 1.477636777417241365e-01 -1.387619108937580142e-02 1.998284606560466262e-02 4.883773631267841059e-02 2.206614976653954174e-01 -3.501051662336919501e-02 1.080169392962938152e-01 4.374934476899766667e-02 2.738074151836430437e-01 2.081574790142867379e-02 -9.481453341355110254e-02 5.466313993506684288e-02 2.132662745778527991e-01 -1.181086857408526758e-02 -1.340724794732851277e-01 6.211534810391875633e-02 2.001113748154374206e-01 3.667400609208031764e-02 2.108711464313249920e-02 6.429955979495277640e-02 2.094571679096521588e-01 3.107604358078722151e-02 1.713921845319941739e-01 5.950423481659034702e-02 2.337091817027070750e-01 -8.695665975435059106e-03 -1.286912056222616063e-01 6.996993070773364909e-02 2.037439872724192136e-01 6.006136890164948290e-03 -1.690764530662061584e-03 7.065647623085377638e-02 2.051753613002690602e-01 1.086466517778715418e-01 2.536085026242811402e-01 7.268480818600041304e-02 2.385353818457284503e-01 -2.433545748424064889e-02 -1.356140924171305162e-01 6.789591850438266019e-02 1.990271015408803523e-01 -4.219720810924449533e-02 -6.247809895331339625e-02 8.054610129580588862e-02 2.289751558113420071e-01 1.070297560081369913e-02 -3.358990173139195234e-02 9.547144236704042941e-02 2.080975862739520288e-01 5.513908896063234727e-02 -1.328332621244995293e-01 8.615528250526779952e-02 2.254759395937973310e-01 -1.154921775324103256e-01 1.367737863842899242e-02 9.447568375502173044e-02 1.949830868708503917e-01 2.093166357064030203e-02 3.172842478175987857e-01 1.044707495327165808e-01 1.846732095341579727e-01 1.004099068683812629e-01 -2.775944187323668433e-01 9.224728963230550971e-02 1.814565605695324102e-01 -3.306025049148082068e-02 -6.637355407223742565e-02 1.045416644140782642e-01 1.918258016983260539e-01 5.295638457602803301e-02 1.221635630616417362e-01 1.023341703009362225e-01 1.754648710865497063e-01 -5.028053588835811744e-02 -9.477788644221915582e-02 1.214838202793542127e-01 1.706750611456678557e-01 -7.609000810772473256e-02 1.378132704742899423e-02 1.109645613000915382e-01 1.528250322167234720e-01 -5.456830822096482569e-02 2.860950122890243072e-02 1.178908871178113993e-01 1.635424076892471879e-01 1.785017444597531977e-01 3.667886710066298184e-02 1.035424628327555746e-01 1.663430017583713560e-01 -1.003380061017585118e-01 -5.259227608698223422e-02 1.139903890765477795e-01 1.435280295357148628e-01 9.092556259018760856e-02 -1.069021997621739800e-01 1.222617459480246499e-01 1.412120455043404110e-01 -5.328049285160135762e-02 9.496729079013727093e-02 1.193526178505051188e-01 1.498763182572257213e-01 -3.895604445730792287e-02 6.164986033865695048e-02 1.225202811833523558e-01 1.393539893958356535e-01 6.450814748560963763e-02 3.651059502169974884e-04 1.300624007921423186e-01 1.252199568848977873e-01 -1.849486170780819186e-02 -9.838064825004262659e-02 1.236189993926733177e-01 1.311190104403817669e-01 7.271133689385309191e-03 6.012110698686748411e-02 1.218277196710579741e-01 1.256391391680072023e-01 -1.034258467509371199e-01 3.715607534397637191e-02 1.297322846875082480e-01 1.141117631481518430e-01 6.798894562662489982e-02 -1.611935234658004035e-01 1.299613048081005306e-01 1.393661248359751303e-01 -2.171521397184515787e-03 7.691190978602216455e-02 1.391030913551944137e-01 1.137441073131836705e-01 -1.157632166880899482e-02 4.239397185380010258e-02 1.248685993106428554e-01 1.349593032853421137e-01 6.388601337676244434e-03 2.260970466457866077e-02 1.382377297992897491e-01 1.036010746288499595e-01 -6.817509199680069076e-02 3.859094523041912972e-02 1.458860051555589399e-01 1.291034763108482308e-01 8.564368412512743389e-02 -1.116052123023130727e-01 1.303954845842103250e-01 9.855338332511646982e-02 2.761799221212818400e-02 1.989938438448517199e-02 1.225849883173769084e-01 1.187434470713196882e-01 -5.776934775255986726e-02 -1.422455704670722368e-02 1.325108335092731737e-01 1.051944004562850171e-01 1.042334325232716352e-01 6.254702756496244298e-02 1.406487387469498584e-01 1.252612801854523228e-01 -2.453737985762908039e-02 -3.657950247073038508e-02 1.520526358134231537e-01 1.222455414164819454e-01 -9.147187324659873664e-02 7.699971857108353634e-02 1.536944444164337342e-01 1.158310675090089836e-01 1.682147041516351624e-02 -1.069112185829592526e-01 1.291489223359086336e-01 1.182118741070599943e-01 1.475691820045327562e-01 7.309377798495178546e-02 1.614495229553490341e-01 1.486722936563843467e-01 -1.419547721432962151e-01 2.753691238972633820e-02 1.606569881509369024e-01 8.998603609296147721e-02 1.164450747449510964e-01 -8.764742519522258912e-02 1.576953344482288355e-01 9.920408778886512235e-02 -3.034891302675265731e-02 7.992436850553796823e-02 1.804384967266411122e-01 1.067389833219866968e-01 -5.090948924887539473e-02 9.277454337812246488e-02 1.561077390675469911e-01 1.473762189763086761e-01 3.212452955728196946e-02 3.112502320955925095e-03 1.579233166921112097e-01 1.332195389279481335e-01 -4.830291089023007294e-03 -2.204817073341767963e-01 1.298063722494736394e-01 1.126371019320235867e-01 -8.430042555220129685e-02 -4.852564811690181917e-02 1.501868790419453870e-01 1.088862935650127817e-01 1.269778486751277358e-01 2.402831946759799164e-01 2.160884284553970525e-01 1.303099513228386519e-01 -1.973085037233807404e-01 -5.509222598254494285e-02 2.048385020966825842e-01 1.156641957165620849e-01 6.766977324365885949e-02 -1.703513374496447019e-01 1.922008289495774069e-01 1.119018971831599041e-01 -2.974879022849167762e-02 1.182231310305477401e-02 1.425339808401780983e-01 1.152139141238408132e-01 1.528106667783449835e-01 -2.635617458065072152e-02 1.897937151831827762e-01 1.484911935702871999e-01 -2.021743400800521395e-01 2.516819807828463706e-01 1.290074331326754031e-01 1.178508776634741712e-01 2.874954890343743852e-01 -1.190755791917651463e-01 1.271248595285522365e-01 1.621710354590648606e-01 -1.346678262342193289e-01 -1.028151426155345521e-01 1.893655373288057053e-01 1.031195860376731277e-01 -7.089464163352306690e-03 2.485618136264637068e-01 1.561034816096194544e-01 1.112333449718342360e-01 1.020068392040324734e-01 3.398681891363880547e-02 1.480878379219236207e-01 1.411261018365550235e-01 -5.734969633275413536e-02 -2.907383850558347693e-01 1.811527727057106463e-01 1.952920699422127093e-01 -1.667926489781603738e-01 3.169877732328751224e-02 1.963027748832126551e-01 6.808008298852416540e-02 2.528687720915175907e-01 3.065370496543954465e-02 1.605480542473423089e-01 1.466181463010906572e-01 -4.772871969991030472e-01 -2.071178613328673035e-01 1.636989320271264037e-01 1.982321725764935316e-01 3.799689149077642991e-01 2.826685275794366681e-01 2.152012698885125974e-01 2.683358435847199019e-01 1.098195158897452561e-02 -1.310638678075568518e-02 1.490215281172481143e-01 1.376494968939054597e-01 -1.418715005628717052e-01 1.600527091323020734e-01 2.539405388350235437e-01 2.624737098968143445e-01 8.413881716176715986e-02 -1.402077871655774133e-01 2.525876357343091461e-01 -7.827146452238993579e-02 -1.665416656194589340e-01 -1.155608812938565405e-01 1.749960309223696775e-01 2.937251289146118327e-01 -1.356519185450374143e-01 2.247002638878576111e-02 -2.771868559075252314e-02 4.176517925962981992e-01 4.829756719957459254e-01 5.237324532531985322e-02 1.281108556146577371e-01 5.771611648360319702e-02 -2.183533675377273553e-01 3.639474375170062559e-01 8.442689449731709261e-02 1.641917091001759976e-01 -8.342713313835205258e-02 -4.370089239174557716e-01 1.526868298470417662e-01 2.491922860043746524e-01 2.037704542847495748e-01 2.764491168868631887e-01 7.949216483669512001e-02 2.466086008926628714e-01 -4.241723115977345526e-01 -7.482977448469381454e-02 1.078585780049204496e-01 3.624879528456900757e-01 1.094615261818003907e-02 -1.095871366265434715e-01 1.978538586847816139e-01 -1.820305259778324247e-01 2.493354203859920737e-01 -5.230200201701822732e-02 7.241773131639356320e-02 7.924718487263904265e-02 4.923290976577250622e-02 -4.434796404736010556e-01 2.435321087034945375e-01 4.155416016559362324e-01 1.937050531501315342e-01 1.994833324632907245e-01 2.011167012703019286e-01 4.648770622218149073e-01 1.962419697749560044e-01 5.213526654726859111e-02 4.664612405680866603e-02 5.640698726351836001e-01 -4.858366479132906202e-01 4.657069452257521780e-01 -5.291451600937072119e-02 6.296006024808148416e-01 8.600300992784154497e-02 -1.054965615284897962e-01 9.983047205522239953e-02 -3.599782295871883919e-01 8.671075441637969561e-02 1.664713269193866807e-01 2.963635089365208031e-01 5.050803523865460276e-01 -7.138319599150763639e-02 -4.210105306467424868e-01 3.757801969170535342e-03 -3.854040339468520204e-01 -3.498815032412012221e-02 -2.168993985804615332e-01 2.367166733699720971e-01 1.520001977778612234e+00 3.211049908046051948e-01 1.419520346104867492e-01 9.951577555352761340e-02 2.699043231005808230e-01 2.629453612973152443e-02 2.692600552508502276e-01 -3.172112414150108362e-01 6.274497201271694857e-01 -8.080224060970332689e-02 -8.850421381173945168e-02 1.444061718432077535e-01 3.661077109687470021e-01 -9.670389610180202267e-02 -1.535255535650593417e-01 -4.138996006070930211e-01 5.111259633602516228e-01 2.046026082386196709e-01 6.162400906091766023e-02 -3.954386442412140545e-01 1.827859826404153731e-01 -2.073441718022839830e-01 8.631421085459863030e-02 -3.558747694805598494e-01 5.112294815178548557e-01 -1.406961901400627934e-01 -1.300458953439201371e-01 1.491080188892086600e-01 -2.730090372651966524e-01 -6.124926811055774190e-01 -5.804751733097650579e-01 -1.584246563165771504e-01 1.120887286907088221e-01 -1.341207099867367802e-01 -5.943793100952484698e-01 6.052543613980363446e-01 2.000420877491281280e-01 1.999938934273464697e-01 -1.672534220684667450e-01 5.929536985475764022e-01 -9.022235492770726284e-02 -3.375858067226416570e-01 3.843694388764189174e-02 6.627995485186283231e-01 -2.344449497555526479e-02 -1.874313082083758630e-01 1.487641161583683203e-02 -9.493383180511071329e-01 -2.752929162606376767e-01 -1.368294893582207294e-01 9.117056053163094531e-02 6.725088796765804969e-03 4.131686342936356504e-01 -2.379791824013703649e-01 2.877011743181753234e-01 8.383870977693242965e-01 -2.821727290891302975e-02 2.239316424273653516e-01 2.447440146301674835e-01 4.957127256786639236e-03 6.837340938713892813e-02 2.199748117330334041e-01 2.250410703626037900e-01 -8.324093897639062156e-01 8.337738602102336138e-02 1.733257418980409803e-01 2.154115406263311661e-01 1.095387633599329003e-02 -1.087655604279597760e-01 -2.692466984873731484e-01 1.402768127207626447e-01 -4.712634193062565507e-02 -3.678686591004805273e-02 -3.093562029794750257e-01 8.604549184008579432e-02 -1.705627890661928492e-01 7.509565539289549119e-02 -3.384644505637738332e-01 7.764567650911435859e-02 -5.399803301732513522e-02 5.210022600212185773e-02 -3.444476179643524705e-01 6.895122628580607760e-02 -5.389019029622232893e-02 -2.477760836457610846e-02 -4.782329499329732170e-02 2.319405075676505557e-01 -3.764877466720542121e-04 4.451129533238860903e-02 -7.278339673185239833e-02 1.933952753720837581e-01 8.253850660187235511e-02 -9.500089310003614895e-02 -7.035186626747884364e-02 1.925688013188558978e-01 1.410034924148426821e-02 -2.409993673222207006e-02 -7.211908640363058620e-02 1.870397436865097740e-01 -2.104155605215980978e-03 1.948078069580878036e-01 -7.511885312895406897e-02 1.940904479811565164e-01 8.788624975502654091e-02 -2.500004933049209191e-02 -7.378446008588593341e-02 1.941681272126304370e-01 7.395480049829202679e-03 -3.234482926059575273e-03 2.043779128580599028e-02 -2.297083242401451453e-03 2.541731969778381929e-03 2.933235129679427535e-03 9.556803611433547022e-03 -8.101225455833796149e-03 -3.335101324083464963e-02 -4.524128283326531164e-03 1.271715410995831637e-02 -1.029596014367562852e-02 -1.735004498550922827e-03 3.651793579529064027e-03 1.285686290065175645e-02 -1.109070317046013075e-02 3.785939659455482293e-03 5.877541774942675150e-03 1.378392758867529218e-02 -1.329275974598648560e-02 -4.543520166069762653e-03 3.902309500940100238e-03 1.410391938111800643e-02 -1.306421631166005196e-02 9.439171677827654788e-03 6.838288234993696903e-03 1.437966946173606375e-02 -1.160475129187404052e-02 -6.665089090914028602e-04 4.061373021671352279e-03 1.367291233993434864e-02 -1.333807489545341639e-02 4.583185059924629206e-04 2.589714179280616733e-03 1.352941929821768925e-02 -1.340433703619223725e-02 -1.448044188532235507e-03 3.661573787943949777e-04 1.351870730162075575e-02 -1.336464048951043274e-02 -3.597466872165978186e-02 -1.306257234747530997e-03 1.363279614244985137e-02 -1.334862506014005031e-02 -9.225545385420036524e-04 1.266169952470764084e-03 -9.143951717782624342e-04 2.217150723263737293e-03 -8.995235636630075993e-04 3.595340175821403372e-04 6.343828570343585868e-04 2.054129248686272554e-03 -1.293153510712543447e-03 -3.734517549580873780e-04 7.312267671858615732e-04 2.069226694335732971e-03 -1.407308665088468323e-02 1.048398989738451867e-03 1.579754971721137637e-03 3.364806838425638512e-04 -2.959022612572006339e-05 1.040430683967138499e-04 1.539007680121314524e-03 3.662260025829870333e-04 9.695094247830987957e-04 9.588575707144754868e-04 1.565494988209138391e-03 3.565948544824235739e-04 -2.959022612572006339e-05 -1.274999221073306981e-04 1.546773699009589345e-03 3.428807633127166875e-04 -2.959022612572006339e-05 9.681076764741178579e-05 1.516728069609075621e-03 3.449165585488104093e-04 -2.959022612572006339e-05
